
\data\
ngram 1=21
ngram 2=25

\1-grams:
-1.727903	18-80109-1	-0.2928269
-1.426873	</s>
-99	<s>	-0.5854959
-0.2894481	<unk>
-1.426873	arrivare-80008-1	-0.1967595
-1.727903	binario-80013-1	-0.2844659
-1.727903	centrale-00445-1	-0.2928269
-1.426873	due-00797-1	-0.1880637
-1.727903	frecciarossa-80094-1	-0.2928269
-1.727903	futuro_prog-80122-1	-0.2844659
-1.727903	mattina-02813-1	-0.2844659
-1.727903	milano-01423-1	-0.2928269
-1.426873	numero-01547-1	-0.1967595
-1.727903	ora-02855-1	-0.2759407
-1.727903	suo-2826-1	-0.2844659
-1.727903	tre-02444-1	-0.2844659
-1.727903	trenitalia-80126-1	-0.2928269
-1.426873	treno-02456-1	-0.1967595
-1.727903	uno-02503-1	-0.2759407
-1.727903	venire_provenire-80128-1	-0.2928269
-1.250781	zero-02617-1	-0.151002

\2-grams:
-0.30103	18-80109-1 ora-02855-1
-0.1249387	<s> treno-02456-1
-0.69897	arrivare-80008-1 </s>
-0.69897	arrivare-80008-1 futuro_prog-80122-1
-0.30103	binario-80013-1 numero-01547-1
-0.30103	centrale-00445-1 venire_provenire-80128-1
-0.69897	due-00797-1 milano-01423-1
-0.69897	due-00797-1 zero-02617-1
-0.30103	frecciarossa-80094-1 binario-80013-1
-0.30103	futuro_prog-80122-1 </s>
-0.30103	mattina-02813-1 numero-01547-1
-0.30103	milano-01423-1 centrale-00445-1
-0.69897	numero-01547-1 18-80109-1
-0.69897	numero-01547-1 due-00797-1
-0.30103	ora-02855-1 zero-02617-1
-0.30103	suo-2826-1 arrivare-80008-1
-0.30103	tre-02444-1 due-00797-1
-0.30103	trenitalia-80126-1 suo-2826-1
-0.69897	treno-02456-1 arrivare-80008-1
-0.69897	treno-02456-1 frecciarossa-80094-1
-0.30103	uno-02503-1 zero-02617-1
-0.30103	venire_provenire-80128-1 trenitalia-80126-1
-0.9542425	zero-02617-1 mattina-02813-1
-0.9542425	zero-02617-1 tre-02444-1
-0.9542425	zero-02617-1 uno-02503-1

\end\
