
\data\
ngram 1=42
ngram 2=85

\1-grams:
-1.61812	11-80102-1	-0.6999552
-2.31709	14-80105-1	-0.2773785
-1.71503	18-80109-1	-0.562658
-2.31709	19-80110-1	-0.2773785
-2.31709	20-80111-1	-0.2773785
-2.01606	28-80119-1	-0.5978544
-1.839969	6-80097-1	-0.8301968
-1.203147	</s>
-99	<s>	-1.935694
-1.385911	<unk>
-2.31709	al_posto_di_sostitutivo-80043-1	-0.2861288
-2.01606	andare-00110-1	-0.2025944
-1.275698	arrivare-80008-1	-1.309056
-1.471992	binario-80013-1	-1.420699
-2.01606	cartello-80134-1	-0.5893191
-1.839969	centrale-00445-1	-0.8323571
-1.61812	cinque-00497-1	-0.2230082
-1.839969	cuneo-80048-1	-0.4088965
-1.061818	due-00797-1	-0.5599718
-1.839969	frecciarossa-80094-1	-0.3678376
-1.414	futuro_prog-80122-1	-1.070081
-2.01606	invece-02659-1	-0.5978544
-2.01606	mattina-02813-1	-0.1731831
-1.839969	milano-01423-1	-0.8387743
-2.01606	minuto-01431-1	-0.5739663
-1.038337	numero-01547-1	-0.5259259
-2.31709	o-02987-1	-0.2989323
-1.471992	ora-02855-1	-0.9696681
-2.01606	partire-01673-1	-0.5849877
-2.01606	previsione-02678-1	-0.5978544
-1.538939	quattro-01915-1	-0.8382755
-1.839969	regionale-01953-1	-0.8033985
-1.71503	regionale_veloce-80084-1	-0.5439289
-2.01606	ritardo-80065-1	-0.5978544
-1.61812	sera-02689-1	-0.2182235
-2.01606	suo-2826-1	-0.1824467
-1.538939	tre-02444-1	-0.8429071
-2.01606	trenitalia-80126-1	-0.5978544
-1.203147	treno-02456-1	-0.713194
-1.414	uno-02503-1	-0.7712138
-1.538939	venire_provenire-80128-1	-0.5580508
-1.362848	zero-02617-1	-0.6124916

\2-grams:
-0.4822609	11-80102-1 due-00797-1
-0.3061696	11-80102-1 tre-02444-1
-0.30103	14-80105-1 arrivare-80008-1
-0.2498775	18-80109-1 arrivare-80008-1
-0.7269987	18-80109-1 ora-02855-1
-0.30103	19-80110-1 arrivare-80008-1
-0.30103	20-80111-1 arrivare-80008-1
-0.1249387	28-80119-1 minuto-01431-1
-0.06694679	6-80097-1 ora-02855-1
-0.004746435	<s> treno-02456-1
-0.30103	al_posto_di_sostitutivo-80043-1 binario-80013-1
-0.69897	andare-00110-1 binario-80013-1
-0.69897	andare-00110-1 partire-01673-1
-0.3620182	arrivare-80008-1 </s>
-0.282837	arrivare-80008-1 futuro_prog-80122-1
-0.01523997	binario-80013-1 numero-01547-1
-0.1249387	cartello-80134-1 venire_provenire-80128-1
-0.06694679	centrale-00445-1 venire_provenire-80128-1
-1.023481	cinque-00497-1 arrivare-80008-1
-1.023481	cinque-00497-1 ora-02855-1
-1.023481	cinque-00497-1 partire-01673-1
-0.7224511	cinque-00497-1 sera-02689-1
-0.3802112	cuneo-80048-1 andare-00110-1
-0.6812412	cuneo-80048-1 venire_provenire-80128-1
-1.051759	due-00797-1 cinque-00497-1
-0.8756682	due-00797-1 due-00797-1
-1.35279	due-00797-1 milano-01423-1
-0.8756682	due-00797-1 quattro-01915-1
-0.8756682	due-00797-1 sera-02689-1
-1.35279	due-00797-1 trenitalia-80126-1
-0.8756682	due-00797-1 uno-02503-1
-1.051759	due-00797-1 zero-02617-1
-0.6812412	frecciarossa-80094-1 binario-80013-1
-0.3802112	frecciarossa-80094-1 numero-01547-1
-0.1606543	futuro_prog-80122-1 </s>
-0.6377755	futuro_prog-80122-1 invece-02659-1
-0.1249387	invece-02659-1 ritardo-80065-1
-0.69897	mattina-02813-1 milano-01423-1
-0.69897	mattina-02813-1 numero-01547-1
-0.06694679	milano-01423-1 centrale-00445-1
-0.1249387	minuto-01431-1 </s>
-1.390086	numero-01547-1 14-80105-1
-0.788026	numero-01547-1 18-80109-1
-1.390086	numero-01547-1 19-80110-1
-1.390086	numero-01547-1 20-80111-1
-0.9129647	numero-01547-1 cinque-00497-1
-1.089056	numero-01547-1 due-00797-1
-0.9129647	numero-01547-1 quattro-01915-1
-1.390086	numero-01547-1 tre-02444-1
-0.9129647	numero-01547-1 uno-02503-1
-0.30103	o-02987-1 al_posto_di_sostitutivo-80043-1
-0.1918855	ora-02855-1 11-80102-1
-0.5898255	ora-02855-1 zero-02617-1
-0.1249387	partire-01673-1 futuro_prog-80122-1
-0.1249387	previsione-02678-1 28-80119-1
-0.3617278	quattro-01915-1 6-80097-1
-0.3617278	quattro-01915-1 due-00797-1
-0.06694679	regionale-01953-1 numero-01547-1
-0.7269987	regionale_veloce-80084-1 binario-80013-1
-0.2498775	regionale_veloce-80084-1 numero-01547-1
-0.1249387	ritardo-80065-1 previsione-02678-1
-0.7224511	sera-02689-1 cartello-80134-1
-1.023481	sera-02689-1 cuneo-80048-1
-1.023481	sera-02689-1 milano-01423-1
-1.023481	sera-02689-1 numero-01547-1
-0.69897	suo-2826-1 arrivare-80008-1
-0.69897	suo-2826-1 ora-02855-1
-0.1398791	tre-02444-1 due-00797-1
-0.8388491	tre-02444-1 o-02987-1
-0.1249387	trenitalia-80126-1 suo-2826-1
-1.18773	treno-02456-1 arrivare-80008-1
-0.7106083	treno-02456-1 frecciarossa-80094-1
-0.8866996	treno-02456-1 numero-01547-1
-0.7106083	treno-02456-1 regionale-01953-1
-0.5856696	treno-02456-1 regionale_veloce-80084-1
-0.6746107	uno-02503-1 cuneo-80048-1
-0.9756407	uno-02503-1 ora-02855-1
-0.2766707	uno-02503-1 zero-02617-1
-0.60206	venire_provenire-80128-1 arrivare-80008-1
-0.4259687	venire_provenire-80128-1 binario-80013-1
-0.90309	venire_provenire-80128-1 trenitalia-80126-1
-0.5762527	zero-02617-1 due-00797-1
-0.752344	zero-02617-1 mattina-02813-1
-0.752344	zero-02617-1 tre-02444-1
-0.752344	zero-02617-1 uno-02503-1

\end\
