
\data\
ngram 1=42
ngram 2=85
ngram 3=112
ngram 4=125

\1-grams:
-1.61812	11-80102-1	-0.6999552
-2.31709	14-80105-1	-0.2773785
-1.71503	18-80109-1	-0.562658
-2.31709	19-80110-1	-0.2773785
-2.31709	20-80111-1	-0.2773785
-2.01606	28-80119-1	-0.5978544
-1.839969	6-80097-1	-0.8301968
-1.203147	</s>
-99	<s>	-1.935694
-1.385911	<unk>
-2.31709	al_posto_di_sostitutivo-80043-1	-0.2861288
-2.01606	andare-00110-1	-0.2025944
-1.275698	arrivare-80008-1	-1.309056
-1.471992	binario-80013-1	-1.420699
-2.01606	cartello-80134-1	-0.5893191
-1.839969	centrale-00445-1	-0.8323571
-1.61812	cinque-00497-1	-0.2230082
-1.839969	cuneo-80048-1	-0.4088965
-1.061818	due-00797-1	-0.5599718
-1.839969	frecciarossa-80094-1	-0.3678376
-1.414	futuro_prog-80122-1	-1.070081
-2.01606	invece-02659-1	-0.5978544
-2.01606	mattina-02813-1	-0.1731831
-1.839969	milano-01423-1	-0.8387743
-2.01606	minuto-01431-1	-0.5739663
-1.038337	numero-01547-1	-0.5259259
-2.31709	o-02987-1	-0.2989323
-1.471992	ora-02855-1	-0.9696681
-2.01606	partire-01673-1	-0.5849877
-2.01606	previsione-02678-1	-0.5978544
-1.538939	quattro-01915-1	-0.8382755
-1.839969	regionale-01953-1	-0.8033985
-1.71503	regionale_veloce-80084-1	-0.5439289
-2.01606	ritardo-80065-1	-0.5978544
-1.61812	sera-02689-1	-0.2182235
-2.01606	suo-2826-1	-0.1824467
-1.538939	tre-02444-1	-0.8429071
-2.01606	trenitalia-80126-1	-0.5978544
-1.203147	treno-02456-1	-0.713194
-1.414	uno-02503-1	-0.7712138
-1.538939	venire_provenire-80128-1	-0.5580508
-1.362848	zero-02617-1	-0.6124916

\2-grams:
-0.4822609	11-80102-1 due-00797-1	-0.5616905
-0.3061696	11-80102-1 tre-02444-1	-0.2850025
-0.30103	14-80105-1 arrivare-80008-1	0.01898858
-0.2498775	18-80109-1 arrivare-80008-1	0.9294188
-0.7269987	18-80109-1 ora-02855-1	-0.1719353
-0.30103	19-80110-1 arrivare-80008-1	-0.05346875
-0.30103	20-80111-1 arrivare-80008-1	-0.05346875
-0.1249387	28-80119-1 minuto-01431-1	0
-0.06694679	6-80097-1 ora-02855-1	-0.39794
-0.004746435	<s> treno-02456-1	0
-0.30103	al_posto_di_sostitutivo-80043-1 binario-80013-1	1.161368
-0.69897	andare-00110-1 binario-80013-1	1.161368
-0.69897	andare-00110-1 partire-01673-1	0.30103
-0.3620182	arrivare-80008-1 </s>
-0.282837	arrivare-80008-1 futuro_prog-80122-1	0.2180557
-0.01523997	binario-80013-1 numero-01547-1	-0.3068488
-0.1249387	cartello-80134-1 venire_provenire-80128-1	0.20412
-0.06694679	centrale-00445-1 venire_provenire-80128-1	0.4259687
-1.023481	cinque-00497-1 arrivare-80008-1	0.01898858
-1.023481	cinque-00497-1 ora-02855-1	0.146128
-1.023481	cinque-00497-1 partire-01673-1	0.30103
-0.7224511	cinque-00497-1 sera-02689-1	-0.1306159
-0.3802112	cuneo-80048-1 andare-00110-1	0
-0.6812412	cuneo-80048-1 venire_provenire-80128-1	-0.09691
-1.051759	due-00797-1 cinque-00497-1	-0.5108271
-0.8756682	due-00797-1 due-00797-1	-0.7830434
-1.35279	due-00797-1 milano-01423-1	0.544068
-0.8756682	due-00797-1 quattro-01915-1	-0.5973135
-0.8756682	due-00797-1 sera-02689-1	-0.2807541
-1.35279	due-00797-1 trenitalia-80126-1	0.30103
-0.8756682	due-00797-1 uno-02503-1	-0.2601938
-1.051759	due-00797-1 zero-02617-1	-0.5175281
-0.6812412	frecciarossa-80094-1 binario-80013-1	1.161368
-0.3802112	frecciarossa-80094-1 numero-01547-1	-0.1001523
-0.1606543	futuro_prog-80122-1 </s>
-0.6377755	futuro_prog-80122-1 invece-02659-1	0
-0.1249387	invece-02659-1 ritardo-80065-1	0
-0.69897	mattina-02813-1 milano-01423-1	0.544068
-0.69897	mattina-02813-1 numero-01547-1	-0.2641281
-0.06694679	milano-01423-1 centrale-00445-1	0
-0.1249387	minuto-01431-1 </s>
-1.390086	numero-01547-1 14-80105-1	0
-0.788026	numero-01547-1 18-80109-1	0
-1.390086	numero-01547-1 19-80110-1	0
-1.390086	numero-01547-1 20-80111-1	0
-0.9129647	numero-01547-1 cinque-00497-1	-0.03087658
-1.089056	numero-01547-1 due-00797-1	-0.5616905
-0.9129647	numero-01547-1 quattro-01915-1	-0.5973135
-1.390086	numero-01547-1 tre-02444-1	-0.2330329
-0.9129647	numero-01547-1 uno-02503-1	-0.5182608
-0.30103	o-02987-1 al_posto_di_sostitutivo-80043-1	0
-0.1918855	ora-02855-1 11-80102-1	0
-0.5898255	ora-02855-1 zero-02617-1	-0.5175281
-0.1249387	partire-01673-1 futuro_prog-80122-1	-0.0923143
-0.1249387	previsione-02678-1 28-80119-1	0
-0.3617278	quattro-01915-1 6-80097-1	0
-0.3617278	quattro-01915-1 due-00797-1	-0.7830434
-0.06694679	regionale-01953-1 numero-01547-1	-0.7884986
-0.7269987	regionale_veloce-80084-1 binario-80013-1	1.161368
-0.2498775	regionale_veloce-80084-1 numero-01547-1	-0.3487358
-0.1249387	ritardo-80065-1 previsione-02678-1	0
-0.7224511	sera-02689-1 cartello-80134-1	0
-1.023481	sera-02689-1 cuneo-80048-1	-0.1995723
-1.023481	sera-02689-1 milano-01423-1	0.544068
-1.023481	sera-02689-1 numero-01547-1	-0.2444306
-0.69897	suo-2826-1 arrivare-80008-1	0.01898858
-0.69897	suo-2826-1 ora-02855-1	-0.1719353
-0.1398791	tre-02444-1 due-00797-1	-0.36815
-0.8388491	tre-02444-1 o-02987-1	0
-0.1249387	trenitalia-80126-1 suo-2826-1	0
-1.18773	treno-02456-1 arrivare-80008-1	-0.05346875
-0.7106083	treno-02456-1 frecciarossa-80094-1	0
-0.8866996	treno-02456-1 numero-01547-1	-0.1229528
-0.7106083	treno-02456-1 regionale-01953-1	0
-0.5856696	treno-02456-1 regionale_veloce-80084-1	0
-0.6746107	uno-02503-1 cuneo-80048-1	-0.3679768
-0.9756407	uno-02503-1 ora-02855-1	0.146128
-0.2766707	uno-02503-1 zero-02617-1	-0.4998242
-0.60206	venire_provenire-80128-1 arrivare-80008-1	-0.2820415
-0.4259687	venire_provenire-80128-1 binario-80013-1	0.6173
-0.90309	venire_provenire-80128-1 trenitalia-80126-1	0.30103
-0.5762527	zero-02617-1 due-00797-1	-0.7830434
-0.752344	zero-02617-1 mattina-02813-1	0
-0.752344	zero-02617-1 tre-02444-1	-0.04196453
-0.752344	zero-02617-1 uno-02503-1	-0.2752228

\3-grams:
-0.4822609	ora-02855-1 11-80102-1 due-00797-1	0
-0.3061696	ora-02855-1 11-80102-1 tre-02444-1	0
-0.30103	numero-01547-1 14-80105-1 arrivare-80008-1	0
-0.2498775	numero-01547-1 18-80109-1 arrivare-80008-1	0
-0.7269987	numero-01547-1 18-80109-1 ora-02855-1	0
-0.30103	numero-01547-1 19-80110-1 arrivare-80008-1	0
-0.30103	numero-01547-1 20-80111-1 arrivare-80008-1	0
-0.1249387	previsione-02678-1 28-80119-1 minuto-01431-1	0
-0.06694679	quattro-01915-1 6-80097-1 ora-02855-1	0
-0.30103	o-02987-1 al_posto_di_sostitutivo-80043-1 binario-80013-1	0
-0.69897	cuneo-80048-1 andare-00110-1 binario-80013-1	0
-0.69897	cuneo-80048-1 andare-00110-1 partire-01673-1	0
-0.30103	14-80105-1 arrivare-80008-1 futuro_prog-80122-1	0.07542112
-0.3802112	18-80109-1 arrivare-80008-1 </s>
-0.6812412	18-80109-1 arrivare-80008-1 futuro_prog-80122-1	0.07542112
-0.30103	19-80110-1 arrivare-80008-1 </s>
-0.30103	20-80111-1 arrivare-80008-1 </s>
-0.30103	cinque-00497-1 arrivare-80008-1 futuro_prog-80122-1	0.07542112
-0.30103	suo-2826-1 arrivare-80008-1 futuro_prog-80122-1	0.07542112
-0.30103	treno-02456-1 arrivare-80008-1 </s>
-0.1249387	venire_provenire-80128-1 arrivare-80008-1 futuro_prog-80122-1	-0.453407
-0.30103	al_posto_di_sostitutivo-80043-1 binario-80013-1 numero-01547-1	-0.2561333
-0.30103	andare-00110-1 binario-80013-1 numero-01547-1	-0.1494391
-0.30103	frecciarossa-80094-1 binario-80013-1 numero-01547-1	-0.2060545
-0.30103	regionale_veloce-80084-1 binario-80013-1 numero-01547-1	-0.1494391
-0.06694679	venire_provenire-80128-1 binario-80013-1 numero-01547-1	0.2103689
-0.1249387	sera-02689-1 cartello-80134-1 venire_provenire-80128-1	0
-0.06694679	milano-01423-1 centrale-00445-1 venire_provenire-80128-1	0
-0.1249387	due-00797-1 cinque-00497-1 sera-02689-1	0
-0.9542425	numero-01547-1 cinque-00497-1 arrivare-80008-1	0
-0.9542425	numero-01547-1 cinque-00497-1 ora-02855-1	0
-0.9542425	numero-01547-1 cinque-00497-1 partire-01673-1	0
-0.30103	sera-02689-1 cuneo-80048-1 venire_provenire-80128-1	0
-0.1249387	uno-02503-1 cuneo-80048-1 andare-00110-1	0
-0.1249387	11-80102-1 due-00797-1 cinque-00497-1	0
-0.06694679	due-00797-1 due-00797-1 uno-02503-1	0
-0.1249387	numero-01547-1 due-00797-1 zero-02617-1	0
-0.06694679	quattro-01915-1 due-00797-1 quattro-01915-1	0
-0.8750613	tre-02444-1 due-00797-1 milano-01423-1	0
-0.39794	tre-02444-1 due-00797-1 sera-02689-1	0
-0.8750613	tre-02444-1 due-00797-1 trenitalia-80126-1	0
-0.06694679	zero-02617-1 due-00797-1 due-00797-1	0
-0.6812412	treno-02456-1 frecciarossa-80094-1 binario-80013-1	0
-0.3802112	treno-02456-1 frecciarossa-80094-1 numero-01547-1	0
-0.2367891	arrivare-80008-1 futuro_prog-80122-1 </s>
-0.5378191	arrivare-80008-1 futuro_prog-80122-1 invece-02659-1	0
-0.1249387	partire-01673-1 futuro_prog-80122-1 </s>
-0.1249387	futuro_prog-80122-1 invece-02659-1 ritardo-80065-1	0
-0.69897	zero-02617-1 mattina-02813-1 milano-01423-1	0
-0.69897	zero-02617-1 mattina-02813-1 numero-01547-1	0
-0.30103	due-00797-1 milano-01423-1 centrale-00445-1	0.544068
-0.30103	mattina-02813-1 milano-01423-1 centrale-00445-1	0.544068
-0.30103	sera-02689-1 milano-01423-1 centrale-00445-1	0.544068
-0.1249387	28-80119-1 minuto-01431-1 </s>
-1.007825	binario-80013-1 numero-01547-1 14-80105-1	0
-0.7067953	binario-80013-1 numero-01547-1 18-80109-1	0.3802112
-0.5307041	binario-80013-1 numero-01547-1 cinque-00497-1	0
-1.007825	binario-80013-1 numero-01547-1 tre-02444-1	0
-0.69897	frecciarossa-80094-1 numero-01547-1 18-80109-1	0.05799198
-0.69897	frecciarossa-80094-1 numero-01547-1 due-00797-1	0.30103
-0.30103	mattina-02813-1 numero-01547-1 due-00797-1	0.30103
-0.06694679	regionale-01953-1 numero-01547-1 quattro-01915-1	0
-0.6812412	regionale_veloce-80084-1 numero-01547-1 19-80110-1	0
-0.3802112	regionale_veloce-80084-1 numero-01547-1 uno-02503-1	0.243038
-0.30103	sera-02689-1 numero-01547-1 uno-02503-1	0.544068
-0.69897	treno-02456-1 numero-01547-1 18-80109-1	0.05799198
-0.69897	treno-02456-1 numero-01547-1 20-80111-1	0
-0.30103	tre-02444-1 o-02987-1 al_posto_di_sostitutivo-80043-1	0
-0.30103	18-80109-1 ora-02855-1 zero-02617-1	0.30103
-0.06694679	6-80097-1 ora-02855-1 11-80102-1	-0.5491475
-0.30103	cinque-00497-1 ora-02855-1 11-80102-1	-0.1274859
-0.30103	suo-2826-1 ora-02855-1 zero-02617-1	0.30103
-0.30103	uno-02503-1 ora-02855-1 11-80102-1	-0.1274859
-0.30103	andare-00110-1 partire-01673-1 futuro_prog-80122-1	0.30103
-0.30103	cinque-00497-1 partire-01673-1 futuro_prog-80122-1	0.30103
-0.1249387	ritardo-80065-1 previsione-02678-1 28-80119-1	0
-0.06694679	due-00797-1 quattro-01915-1 6-80097-1	0
-0.06694679	numero-01547-1 quattro-01915-1 due-00797-1	0
-0.06694679	treno-02456-1 regionale-01953-1 numero-01547-1	0
-0.7269987	treno-02456-1 regionale_veloce-80084-1 binario-80013-1	0
-0.2498775	treno-02456-1 regionale_veloce-80084-1 numero-01547-1	0
-0.1249387	invece-02659-1 ritardo-80065-1 previsione-02678-1	0
-0.69897	cinque-00497-1 sera-02689-1 cuneo-80048-1	0
-0.69897	cinque-00497-1 sera-02689-1 numero-01547-1	0
-0.3802112	due-00797-1 sera-02689-1 cartello-80134-1	0
-0.6812412	due-00797-1 sera-02689-1 milano-01423-1	0
-0.69897	trenitalia-80126-1 suo-2826-1 arrivare-80008-1	0
-0.69897	trenitalia-80126-1 suo-2826-1 ora-02855-1	0
-0.06694679	11-80102-1 tre-02444-1 due-00797-1	-0.6232493
-0.30103	numero-01547-1 tre-02444-1 o-02987-1	0
-0.1249387	zero-02617-1 tre-02444-1 due-00797-1	-0.08715017
-0.30103	due-00797-1 trenitalia-80126-1 suo-2826-1	-0.20412
-0.30103	venire_provenire-80128-1 trenitalia-80126-1 suo-2826-1	-0.20412
-1.18773	<s> treno-02456-1 arrivare-80008-1	0
-0.7106083	<s> treno-02456-1 frecciarossa-80094-1	0
-0.8866996	<s> treno-02456-1 numero-01547-1	0
-0.7106083	<s> treno-02456-1 regionale-01953-1	0
-0.5856696	<s> treno-02456-1 regionale_veloce-80084-1	0
-0.3802112	due-00797-1 uno-02503-1 cuneo-80048-1	0
-0.6812412	due-00797-1 uno-02503-1 ora-02855-1	0
-0.06694679	numero-01547-1 uno-02503-1 zero-02617-1	-0.5491475
-0.1249387	zero-02617-1 uno-02503-1 zero-02617-1	-0.4285159
-0.69897	cartello-80134-1 venire_provenire-80128-1 arrivare-80008-1	0.30103
-0.69897	cartello-80134-1 venire_provenire-80128-1 binario-80013-1	0.544068
-0.9542425	centrale-00445-1 venire_provenire-80128-1 arrivare-80008-1	0.30103
-0.9542425	centrale-00445-1 venire_provenire-80128-1 binario-80013-1	0.544068
-0.9542425	centrale-00445-1 venire_provenire-80128-1 trenitalia-80126-1	0
-0.30103	cuneo-80048-1 venire_provenire-80128-1 binario-80013-1	0.544068
-0.1249387	due-00797-1 zero-02617-1 tre-02444-1	0
-0.1249387	ora-02855-1 zero-02617-1 uno-02503-1	0
-0.3061696	uno-02503-1 zero-02617-1 due-00797-1	0
-0.4822609	uno-02503-1 zero-02617-1 mattina-02813-1	0

\4-grams:
-0.06694679	6-80097-1 ora-02855-1 11-80102-1 tre-02444-1
-0.30103	cinque-00497-1 ora-02855-1 11-80102-1 due-00797-1
-0.30103	uno-02503-1 ora-02855-1 11-80102-1 due-00797-1
-0.30103	binario-80013-1 numero-01547-1 14-80105-1 arrivare-80008-1
-0.69897	binario-80013-1 numero-01547-1 18-80109-1 arrivare-80008-1
-0.69897	binario-80013-1 numero-01547-1 18-80109-1 ora-02855-1
-0.30103	frecciarossa-80094-1 numero-01547-1 18-80109-1 arrivare-80008-1
-0.30103	treno-02456-1 numero-01547-1 18-80109-1 arrivare-80008-1
-0.30103	regionale_veloce-80084-1 numero-01547-1 19-80110-1 arrivare-80008-1
-0.30103	treno-02456-1 numero-01547-1 20-80111-1 arrivare-80008-1
-0.1249387	ritardo-80065-1 previsione-02678-1 28-80119-1 minuto-01431-1
-0.06694679	due-00797-1 quattro-01915-1 6-80097-1 ora-02855-1
-0.30103	tre-02444-1 o-02987-1 al_posto_di_sostitutivo-80043-1 binario-80013-1
-0.69897	uno-02503-1 cuneo-80048-1 andare-00110-1 binario-80013-1
-0.69897	uno-02503-1 cuneo-80048-1 andare-00110-1 partire-01673-1
-0.30103	numero-01547-1 14-80105-1 arrivare-80008-1 futuro_prog-80122-1
-0.3802112	numero-01547-1 18-80109-1 arrivare-80008-1 </s>
-0.6812412	numero-01547-1 18-80109-1 arrivare-80008-1 futuro_prog-80122-1
-0.30103	numero-01547-1 19-80110-1 arrivare-80008-1 </s>
-0.30103	numero-01547-1 20-80111-1 arrivare-80008-1 </s>
-0.30103	numero-01547-1 cinque-00497-1 arrivare-80008-1 futuro_prog-80122-1
-0.30103	trenitalia-80126-1 suo-2826-1 arrivare-80008-1 futuro_prog-80122-1
-0.30103	<s> treno-02456-1 arrivare-80008-1 </s>
-0.30103	cartello-80134-1 venire_provenire-80128-1 arrivare-80008-1 futuro_prog-80122-1
-0.30103	centrale-00445-1 venire_provenire-80128-1 arrivare-80008-1 futuro_prog-80122-1
-0.30103	o-02987-1 al_posto_di_sostitutivo-80043-1 binario-80013-1 numero-01547-1
-0.30103	cuneo-80048-1 andare-00110-1 binario-80013-1 numero-01547-1
-0.30103	treno-02456-1 frecciarossa-80094-1 binario-80013-1 numero-01547-1
-0.30103	treno-02456-1 regionale_veloce-80084-1 binario-80013-1 numero-01547-1
-0.30103	cartello-80134-1 venire_provenire-80128-1 binario-80013-1 numero-01547-1
-0.30103	centrale-00445-1 venire_provenire-80128-1 binario-80013-1 numero-01547-1
-0.30103	cuneo-80048-1 venire_provenire-80128-1 binario-80013-1 numero-01547-1
-0.1249387	due-00797-1 sera-02689-1 cartello-80134-1 venire_provenire-80128-1
-0.30103	due-00797-1 milano-01423-1 centrale-00445-1 venire_provenire-80128-1
-0.30103	mattina-02813-1 milano-01423-1 centrale-00445-1 venire_provenire-80128-1
-0.30103	sera-02689-1 milano-01423-1 centrale-00445-1 venire_provenire-80128-1
-0.1249387	11-80102-1 due-00797-1 cinque-00497-1 sera-02689-1
-0.9542425	binario-80013-1 numero-01547-1 cinque-00497-1 arrivare-80008-1
-0.9542425	binario-80013-1 numero-01547-1 cinque-00497-1 ora-02855-1
-0.9542425	binario-80013-1 numero-01547-1 cinque-00497-1 partire-01673-1
-0.30103	cinque-00497-1 sera-02689-1 cuneo-80048-1 venire_provenire-80128-1
-0.1249387	due-00797-1 uno-02503-1 cuneo-80048-1 andare-00110-1
-0.1249387	ora-02855-1 11-80102-1 due-00797-1 cinque-00497-1
-0.06694679	zero-02617-1 due-00797-1 due-00797-1 uno-02503-1
-0.30103	frecciarossa-80094-1 numero-01547-1 due-00797-1 zero-02617-1
-0.30103	mattina-02813-1 numero-01547-1 due-00797-1 zero-02617-1
-0.06694679	numero-01547-1 quattro-01915-1 due-00797-1 quattro-01915-1
-0.06694679	11-80102-1 tre-02444-1 due-00797-1 sera-02689-1
-0.69897	zero-02617-1 tre-02444-1 due-00797-1 milano-01423-1
-0.69897	zero-02617-1 tre-02444-1 due-00797-1 trenitalia-80126-1
-0.06694679	uno-02503-1 zero-02617-1 due-00797-1 due-00797-1
-0.6812412	<s> treno-02456-1 frecciarossa-80094-1 binario-80013-1
-0.3802112	<s> treno-02456-1 frecciarossa-80094-1 numero-01547-1
-0.30103	14-80105-1 arrivare-80008-1 futuro_prog-80122-1 </s>
-0.30103	18-80109-1 arrivare-80008-1 futuro_prog-80122-1 </s>
-0.30103	cinque-00497-1 arrivare-80008-1 futuro_prog-80122-1 </s>
-0.30103	suo-2826-1 arrivare-80008-1 futuro_prog-80122-1 </s>
-0.1249387	venire_provenire-80128-1 arrivare-80008-1 futuro_prog-80122-1 invece-02659-1
-0.30103	andare-00110-1 partire-01673-1 futuro_prog-80122-1 </s>
-0.30103	cinque-00497-1 partire-01673-1 futuro_prog-80122-1 </s>
-0.1249387	arrivare-80008-1 futuro_prog-80122-1 invece-02659-1 ritardo-80065-1
-0.69897	uno-02503-1 zero-02617-1 mattina-02813-1 milano-01423-1
-0.69897	uno-02503-1 zero-02617-1 mattina-02813-1 numero-01547-1
-0.30103	tre-02444-1 due-00797-1 milano-01423-1 centrale-00445-1
-0.30103	zero-02617-1 mattina-02813-1 milano-01423-1 centrale-00445-1
-0.30103	due-00797-1 sera-02689-1 milano-01423-1 centrale-00445-1
-0.1249387	previsione-02678-1 28-80119-1 minuto-01431-1 </s>
-0.30103	al_posto_di_sostitutivo-80043-1 binario-80013-1 numero-01547-1 14-80105-1
-0.30103	andare-00110-1 binario-80013-1 numero-01547-1 cinque-00497-1
-0.30103	frecciarossa-80094-1 binario-80013-1 numero-01547-1 18-80109-1
-0.30103	regionale_veloce-80084-1 binario-80013-1 numero-01547-1 cinque-00497-1
-0.9542425	venire_provenire-80128-1 binario-80013-1 numero-01547-1 18-80109-1
-0.9542425	venire_provenire-80128-1 binario-80013-1 numero-01547-1 cinque-00497-1
-0.9542425	venire_provenire-80128-1 binario-80013-1 numero-01547-1 tre-02444-1
-0.69897	treno-02456-1 frecciarossa-80094-1 numero-01547-1 18-80109-1
-0.69897	treno-02456-1 frecciarossa-80094-1 numero-01547-1 due-00797-1
-0.30103	zero-02617-1 mattina-02813-1 numero-01547-1 due-00797-1
-0.06694679	treno-02456-1 regionale-01953-1 numero-01547-1 quattro-01915-1
-0.6812412	treno-02456-1 regionale_veloce-80084-1 numero-01547-1 19-80110-1
-0.3802112	treno-02456-1 regionale_veloce-80084-1 numero-01547-1 uno-02503-1
-0.30103	cinque-00497-1 sera-02689-1 numero-01547-1 uno-02503-1
-0.69897	<s> treno-02456-1 numero-01547-1 18-80109-1
-0.69897	<s> treno-02456-1 numero-01547-1 20-80111-1
-0.30103	numero-01547-1 tre-02444-1 o-02987-1 al_posto_di_sostitutivo-80043-1
-0.30103	numero-01547-1 18-80109-1 ora-02855-1 zero-02617-1
-0.06694679	quattro-01915-1 6-80097-1 ora-02855-1 11-80102-1
-0.30103	numero-01547-1 cinque-00497-1 ora-02855-1 11-80102-1
-0.30103	trenitalia-80126-1 suo-2826-1 ora-02855-1 zero-02617-1
-0.30103	due-00797-1 uno-02503-1 ora-02855-1 11-80102-1
-0.30103	cuneo-80048-1 andare-00110-1 partire-01673-1 futuro_prog-80122-1
-0.30103	numero-01547-1 cinque-00497-1 partire-01673-1 futuro_prog-80122-1
-0.1249387	invece-02659-1 ritardo-80065-1 previsione-02678-1 28-80119-1
-0.06694679	quattro-01915-1 due-00797-1 quattro-01915-1 6-80097-1
-0.06694679	regionale-01953-1 numero-01547-1 quattro-01915-1 due-00797-1
-0.06694679	<s> treno-02456-1 regionale-01953-1 numero-01547-1
-0.7269987	<s> treno-02456-1 regionale_veloce-80084-1 binario-80013-1
-0.2498775	<s> treno-02456-1 regionale_veloce-80084-1 numero-01547-1
-0.1249387	futuro_prog-80122-1 invece-02659-1 ritardo-80065-1 previsione-02678-1
-0.69897	due-00797-1 cinque-00497-1 sera-02689-1 cuneo-80048-1
-0.69897	due-00797-1 cinque-00497-1 sera-02689-1 numero-01547-1
-0.3802112	tre-02444-1 due-00797-1 sera-02689-1 cartello-80134-1
-0.6812412	tre-02444-1 due-00797-1 sera-02689-1 milano-01423-1
-0.30103	due-00797-1 trenitalia-80126-1 suo-2826-1 ora-02855-1
-0.30103	venire_provenire-80128-1 trenitalia-80126-1 suo-2826-1 arrivare-80008-1
-0.06694679	ora-02855-1 11-80102-1 tre-02444-1 due-00797-1
-0.30103	binario-80013-1 numero-01547-1 tre-02444-1 o-02987-1
-0.1249387	due-00797-1 zero-02617-1 tre-02444-1 due-00797-1
-0.30103	tre-02444-1 due-00797-1 trenitalia-80126-1 suo-2826-1
-0.30103	centrale-00445-1 venire_provenire-80128-1 trenitalia-80126-1 suo-2826-1
-0.3802112	due-00797-1 due-00797-1 uno-02503-1 cuneo-80048-1
-0.6812412	due-00797-1 due-00797-1 uno-02503-1 ora-02855-1
-0.1249387	regionale_veloce-80084-1 numero-01547-1 uno-02503-1 zero-02617-1
-0.30103	sera-02689-1 numero-01547-1 uno-02503-1 zero-02617-1
-0.1249387	ora-02855-1 zero-02617-1 uno-02503-1 zero-02617-1
-0.69897	sera-02689-1 cartello-80134-1 venire_provenire-80128-1 arrivare-80008-1
-0.69897	sera-02689-1 cartello-80134-1 venire_provenire-80128-1 binario-80013-1
-0.9542425	milano-01423-1 centrale-00445-1 venire_provenire-80128-1 arrivare-80008-1
-0.9542425	milano-01423-1 centrale-00445-1 venire_provenire-80128-1 binario-80013-1
-0.9542425	milano-01423-1 centrale-00445-1 venire_provenire-80128-1 trenitalia-80126-1
-0.30103	sera-02689-1 cuneo-80048-1 venire_provenire-80128-1 binario-80013-1
-0.1249387	numero-01547-1 due-00797-1 zero-02617-1 tre-02444-1
-0.30103	18-80109-1 ora-02855-1 zero-02617-1 uno-02503-1
-0.30103	suo-2826-1 ora-02855-1 zero-02617-1 uno-02503-1
-0.06694679	numero-01547-1 uno-02503-1 zero-02617-1 due-00797-1
-0.1249387	zero-02617-1 uno-02503-1 zero-02617-1 mattina-02813-1

\end\
